{"learner":{"attributes":{"best_iteration":"9","best_ntree_limit":"10","best_score":"14.633869","scikit_learn":"{\"n_estimators\": 10, \"objective\": \"reg:squarederror\", \"max_depth\": 3, \"learning_rate\": 0.1, \"verbosity\": 2, \"booster\": null, \"tree_method\": null, \"gamma\": null, \"min_child_weight\": null, \"max_delta_step\": null, \"subsample\": null, \"colsample_bytree\": 0.2, \"colsample_bylevel\": null, \"colsample_bynode\": null, \"reg_alpha\": null, \"reg_lambda\": null, \"scale_pos_weight\": null, \"base_score\": null, \"missing\": NaN, \"num_parallel_tree\": null, \"kwargs\": {\"alpha\": 10, \"eval_metric\": \"rmse\"}, \"random_state\": null, \"n_jobs\": null, \"monotone_constraints\": null, \"interaction_constraints\": null, \"importance_type\": \"gain\", \"gpu_id\": null, \"validate_parameters\": null, \"evals_result_\": {\"validation_0\": {\"rmse\": [37.188839, 33.48975, 30.199135, 27.243343, 24.545589, 22.114254, 19.928356, 17.96414, 16.192116, 14.636416]}, \"validation_1\": {\"rmse\": [37.201481, 33.500168, 30.207687, 27.25034, 24.550718, 22.117584, 19.930347, 17.964375, 16.190117, 14.633869]}}, \"_estimator_type\": \"regressor\"}"},"feature_names":["age","duration","campaign","pdays","previous","emp.var.rate","cons.price.idx","euribor3m","nr.employed"],"feature_types":["int","int","int","int","int","float","float","float","float"],"gradient_booster":{"model":{"gbtree_model_param":{"num_trees":"10","size_leaf_vector":"0"},"tree_info":[0,0,0,0,0,0,0,0,0,0],"trees":[{"base_weights":[-4.0997414E1,-3.824502E1,-4.1078766E1],"categories":[],"categories_nodes":[],"categories_segments":[],"categories_sizes":[],"default_left":[true,false,false],"id":0,"left_children":[1,-1,-1],"loss_changes":[5.012E3,0E0,0E0],"parents":[2147483647,0,0],"right_children":[2,-1,-1],"split_conditions":[8.5E0,-3.8245022E0,-4.107877E0],"split_indices":[3,0,0],"split_type":[0,0,0],"sum_hessian":[3.295E4,9.63E2,3.1987E4],"tree_param":{"num_deleted":"0","num_feature":"9","num_nodes":"3","size_leaf_vector":"0"}},{"base_weights":[-3.6897945E1,-2.6810148E1,-3.746872E1,-2.617627E1,-2.8100302E1,-4.2540775E1,-3.5890873E1,-2.7378305E1,-2.324766E1,-4.599202E1,-4.241663E1,-3.5342236E1,-3.8783447E1],"categories":[],"categories_nodes":[],"categories_segments":[],"categories_sizes":[],"default_left":[true,true,true,true,false,true,true,false,false,false,false,false,false],"id":1,"left_children":[1,3,5,7,-1,9,11,-1,-1,-1,-1,-1,-1],"loss_changes":[1.8808E5,1.68375E2,2.47244E5,3.1026875E3,0E0,3.32E2,3.5646E4,0E0,0E0,0E0,0E0,0E0,0E0],"parents":[2147483647,0,0,1,1,2,2,3,3,5,5,6,6],"right_children":[2,4,6,8,-1,10,12,-1,-1,-1,-1,-1,-1],"split_conditions":[9.27345E1,9.245E1,9.31375E1,9.2405E1,-2.8100302E0,9.2868E1,9.434E1,-2.7378306E0,-2.324766E0,-4.599202E0,-4.241663E0,-3.5342236E0,-3.8783448E0],"split_indices":[6,6,6,6,0,6,6,0,0,0,0,0,0],"split_type":[0,0,0,0,0,0,0,0,0,0,0,0,0],"sum_hessian":[3.295E4,1.768E3,3.1182E4,1.205E3,5.63E2,7.391E3,2.3791E4,8.46E2,3.59E2,2.41E2,7.15E3,2.0012E4,3.779E3],"tree_param":{"num_deleted":"0","num_feature":"9","num_nodes":"13","size_leaf_vector":"0"}},{"base_weights":[-3.3209064E1,-3.3279827E1,-2.9837795E1,-3.3509346E1,-3.2739502E1],"categories":[],"categories_nodes":[],"categories_segments":[],"categories_sizes":[],"default_left":[true,true,false,false,false],"id":2,"left_children":[1,3,-1,-1,-1],"loss_changes":[6.236E3,2.244E3,0E0,0E0,0E0],"parents":[2147483647,0,0,1,1],"right_children":[2,4,-1,-1,-1],"split_conditions":[6.15E1,4.45E1,-2.9837797E0,-3.3509347E0,-3.2739503E0],"split_indices":[0,0,0,0,0],"split_type":[0,0,0,0,0],"sum_hessian":[3.295E4,3.2261E4,6.89E2,2.2587E4,9.674E3],"tree_param":{"num_deleted":"0","num_feature":"9","num_nodes":"5","size_leaf_vector":"0"}},{"base_weights":[-2.988851E1,-2.9978897E1,-2.7743118E1,-3.015856E1,-2.9524296E1,-3.0789051E1,-3.004692E1],"categories":[],"categories_nodes":[],"categories_segments":[],"categories_sizes":[],"default_left":[true,true,false,true,false,false,false],"id":3,"left_children":[1,3,-1,5,-1,-1,-1],"loss_changes":[4.98E3,1.094E3,0E0,5.6E1,0E0,0E0,0E0],"parents":[2147483647,0,0,1,1,3,3],"right_children":[2,4,-1,6,-1,-1,-1],"split_conditions":[5.85E1,4.45E1,-2.7743118E0,2.85E1,-2.9524295E0,-3.078905E0,-3.004692E0],"split_indices":[0,0,0,0,0,0,0],"split_type":[0,0,0,0,0,0,0],"sum_hessian":[3.295E4,3.1601E4,1.349E3,2.2587E4,9.014E3,3.343E3,1.9244E4],"tree_param":{"num_deleted":"0","num_feature":"9","num_nodes":"7","size_leaf_vector":"0"}},{"base_weights":[-2.6900108E1,-1.7920656E1,-2.7408325E1,-1.735803E1,-1.9074215E1,-3.1962547E1,-2.599179E1,-1.8435898E1,-1.4746055E1,-3.515702E1,-3.1848574E1,-2.5498108E1,-2.8596039E1],"categories":[],"categories_nodes":[],"categories_segments":[],"categories_sizes":[],"default_left":[true,true,true,true,false,true,true,false,false,false,false,false,false],"id":4,"left_children":[1,3,5,7,-1,9,11,-1,-1,-1,-1,-1,-1],"loss_changes":[1.49426E5,4.5275E2,1.99758E5,2.791625E3,0E0,9.015E2,2.9319E4,0E0,0E0,0E0,0E0,0E0,0E0],"parents":[2147483647,0,0,1,1,2,2,3,3,5,5,6,6],"right_children":[2,4,6,8,-1,10,12,-1,-1,-1,-1,-1,-1],"split_conditions":[9.27345E1,9.245E1,9.31375E1,9.2405E1,-1.9074215E0,9.2868E1,9.434E1,-1.8435898E0,-1.4746054E0,-3.515702E0,-3.1848574E0,-2.549811E0,-2.859604E0],"split_indices":[6,6,6,6,0,6,6,0,0,0,0,0,0],"split_type":[0,0,0,0,0,0,0,0,0,0,0,0,0],"sum_hessian":[3.295E4,1.768E3,3.1182E4,1.205E3,5.63E2,7.391E3,2.3791E4,8.46E2,3.59E2,2.41E2,7.15E3,2.0012E4,3.779E3],"tree_param":{"num_deleted":"0","num_feature":"9","num_nodes":"13","size_leaf_vector":"0"}},{"base_weights":[-2.4210806E1,-1.6132675E1,-2.4667978E1,-1.5625808E1,-1.7170176E1,-2.7985348E1,-2.3029476E1,-1.6594484E1,-1.3275545E1,-2.8767334E1,-2.598726E1,-2.0000654E1,-2.3854513E1],"categories":[],"categories_nodes":[],"categories_segments":[],"categories_sizes":[],"default_left":[true,true,true,true,false,true,true,false,false,false,false,false,false],"id":5,"left_children":[1,3,5,7,-1,9,11,-1,-1,-1,-1,-1,-1],"loss_changes":[1.20886E5,3.34E2,1.6834E5,2.226625E3,0E0,1.4803E4,5.1264E4,0E0,0E0,0E0,0E0,0E0,0E0],"parents":[2147483647,0,0,1,1,2,2,3,3,5,5,6,6],"right_children":[2,4,6,8,-1,10,12,-1,-1,-1,-1,-1,-1],"split_conditions":[9.27345E1,9.245E1,9.32845E1,9.2405E1,-1.7170175E0,9.31375E1,9.37735E1,-1.6594485E0,-1.3275546E0,-2.8767335E0,-2.598726E0,-2.0000656E0,-2.3854513E0],"split_indices":[6,6,6,6,0,6,6,0,0,0,0,0,0],"split_type":[0,0,0,0,0,0,0,0,0,0,0,0,0],"sum_hessian":[3.295E4,1.768E3,3.1182E4,1.205E3,5.63E2,1.0302E4,2.088E4,8.46E2,3.59E2,7.391E3,2.911E3,4.478E3,1.6402E4],"tree_param":{"num_deleted":"0","num_feature":"9","num_nodes":"13","size_leaf_vector":"0"}},{"base_weights":[-2.1790348E1,-1.4523198E1,-2.2201591E1,-1.4066533E1,-1.54562025E1,-2.518744E1,-2.0726788E1,-1.49369955E1,-1.1951678E1,-1.7079739E1,-1.4813503E1,-2.589099E1,-2.3389427E1,-1.8001036E1,-2.1469206E1],"categories":[],"categories_nodes":[],"categories_segments":[],"categories_sizes":[],"default_left":[true,true,true,true,true,true,true,false,false,false,false,false,false,false,false],"id":6,"left_children":[1,3,5,7,9,11,13,-1,-1,-1,-1,-1,-1,-1,-1],"loss_changes":[9.7786E4,2.4109375E2,1.36334E5,1.7727188E3,1.65625E1,1.19345E4,4.1475E4,0E0,0E0,0E0,0E0,0E0,0E0,0E0,0E0],"parents":[2147483647,0,0,1,1,2,2,3,3,4,4,5,5,6,6],"right_children":[2,4,6,8,10,12,14,-1,-1,-1,-1,-1,-1,-1,-1],"split_conditions":[9.27345E1,9.245E1,9.32845E1,9.2405E1,9.2559006E1,9.31375E1,9.37735E1,-1.4936996E0,-1.1951679E0,-1.7079738E0,-1.4813503E0,-2.589099E0,-2.3389428E0,-1.8001035E0,-2.1469207E0],"split_indices":[6,6,6,6,6,6,6,0,0,0,0,0,0,0,0],"split_type":[0,0,0,0,0,0,0,0,0,0,0,0,0,0,0],"sum_hessian":[3.295E4,1.768E3,3.1182E4,1.205E3,5.63E2,1.0302E4,2.088E4,8.46E2,3.59E2,1.48E2,4.15E2,7.391E3,2.911E3,4.478E3,1.6402E4],"tree_param":{"num_deleted":"0","num_feature":"9","num_nodes":"15","size_leaf_vector":"0"}},{"base_weights":[-1.9611973E1,-1.3075897E1,-1.9981813E1,-1.2885426E1,-1.5194682E1,-2.2669271E1,-1.8654345E1,-1.3837988E1,-1.2268648E1,-2.330224E1,-2.1051287E1,-1.6201334E1,-1.9322416E1],"categories":[],"categories_nodes":[],"categories_segments":[],"categories_sizes":[],"default_left":[true,true,true,true,false,true,true,false,false,false,false,false,false],"id":7,"left_children":[1,3,5,7,-1,9,11,-1,-1,-1,-1,-1,-1],"loss_changes":[7.906E4,2.3734375E2,1.10411E5,5.2915625E2,0E0,9.6175E3,3.3551E4,0E0,0E0,0E0,0E0,0E0,0E0],"parents":[2147483647,0,0,1,1,2,2,3,3,5,5,6,6],"right_children":[2,4,6,8,-1,10,12,-1,-1,-1,-1,-1,-1],"split_conditions":[9.27345E1,9.2681E1,9.32845E1,9.228999E1,-1.5194682E0,9.31375E1,9.37735E1,-1.3837988E0,-1.2268648E0,-2.330224E0,-2.1051288E0,-1.6201334E0,-1.9322417E0],"split_indices":[6,6,6,6,0,6,6,0,0,0,0,0,0],"split_type":[0,0,0,0,0,0,0,0,0,0,0,0,0],"sum_hessian":[3.295E4,1.768E3,3.1182E4,1.633E3,1.35E2,1.0302E4,2.088E4,6.27E2,1.006E3,7.391E3,2.911E3,4.478E3,1.6402E4],"tree_param":{"num_deleted":"0","num_feature":"9","num_nodes":"13","size_leaf_vector":"0"}},{"base_weights":[-1.7651327E1,-1.3312585E1,-1.804892E1,-1.4823102E1,-1.2858561E1,-2.0406147E1,-1.6704308E1,-1.3370015E1,-1.6656443E1,-1.1450161E1,-1.3667733E1,-2.0930634E1,-1.894688E1,-1.3934534E1,-1.7931812E1],"categories":[],"categories_nodes":[],"categories_segments":[],"categories_sizes":[],"default_left":[true,true,true,true,true,true,true,false,false,false,false,false,false,false,false],"id":8,"left_children":[1,3,5,7,9,11,13,-1,-1,-1,-1,-1,-1,-1,-1],"loss_changes":[5.6287E4,1.4336562E3,9.4945E4,1.1526875E3,2.0357188E3,7.589E3,6.4798E4,0E0,0E0,0E0,0E0,0E0,0E0,0E0,0E0],"parents":[2147483647,0,0,1,1,2,2,3,3,4,4,5,5,6,6],"right_children":[2,4,6,8,10,12,14,-1,-1,-1,-1,-1,-1,-1,-1],"split_conditions":[8.8699996E-1,7.135E-1,4.7465E0,6.655E-1,7.4600005E-1,3.8344998E0,4.862E0,-1.3370016E0,-1.6656443E0,-1.1450161E0,-1.3667734E0,-2.0930634E0,-1.894688E0,-1.3934535E0,-1.7931813E0],"split_indices":[7,7,7,7,7,7,7,0,0,0,0,0,0,0,0],"split_type":[0,0,0,0,0,0,0,0,0,0,0,0,0,0,0],"sum_hessian":[3.295E4,2.771E3,3.0179E4,6.28E2,2.143E3,1.0954E4,1.9225E4,3.58E2,2.7E2,7.92E2,1.351E3,8.043E3,2.911E3,5.91E3,1.3315E4],"tree_param":{"num_deleted":"0","num_feature":"9","num_nodes":"15","size_leaf_vector":"0"}},{"base_weights":[-1.5886791E1],"categories":[],"categories_nodes":[],"categories_segments":[],"categories_sizes":[],"default_left":[false],"id":9,"left_children":[-1],"loss_changes":[0E0],"parents":[2147483647],"right_children":[-1],"split_conditions":[-1.5886792E0],"split_indices":[0],"split_type":[0],"sum_hessian":[3.295E4],"tree_param":{"num_deleted":"0","num_feature":"9","num_nodes":"1","size_leaf_vector":"0"}}]},"name":"gbtree"},"learner_model_param":{"base_score":"5E-1","num_class":"0","num_feature":"9"},"objective":{"name":"reg:squarederror","reg_loss_param":{"scale_pos_weight":"1"}}},"version":[1,4,2]}